digraph Tree {
node [shape=box, fontname="helvetica"] ;
edge [fontname="helvetica"] ;
0 [label="Sex <= 0.5\nentropy = 0.968\nsamples = 623\nvalue = [377, 246]"] ;
1 [label="Pclass <= 2.5\nentropy = 0.813\nsamples = 231\nvalue = [58, 173]"] ;
0 -> 1 [labeldistance=2.5, labelangle=45, headlabel="True"] ;
2 [label="Age <= 27.5\nentropy = 0.313\nsamples = 124\nvalue = [7, 117]"] ;
1 -> 2 ;
3 [label="Age <= 24.5\nentropy = 0.496\nsamples = 46\nvalue = [5, 41]"] ;
2 -> 3 ;
4 [label="Age <= 2.5\nentropy = 0.281\nsamples = 41\nvalue = [2, 39]"] ;
3 -> 4 ;
5 [label="Parch <= 1.5\nentropy = 1.0\nsamples = 2\nvalue = [1, 1]"] ;
4 -> 5 ;
6 [label="entropy = 0.0\nsamples = 1\nvalue = [0, 1]"] ;
5 -> 6 ;
7 [label="entropy = 0.0\nsamples = 1\nvalue = [1, 0]"] ;
5 -> 7 ;
8 [label="Fare <= 13.396\nentropy = 0.172\nsamples = 39\nvalue = [1, 38]"] ;
4 -> 8 ;
9 [label="Age <= 22.5\nentropy = 0.65\nsamples = 6\nvalue = [1, 5]"] ;
8 -> 9 ;
10 [label="entropy = 0.0\nsamples = 4\nvalue = [0, 4]"] ;
9 -> 10 ;
11 [label="entropy = 1.0\nsamples = 2\nvalue = [1, 1]"] ;
9 -> 11 ;
12 [label="entropy = 0.0\nsamples = 33\nvalue = [0, 33]"] ;
8 -> 12 ;
13 [label="Fare <= 28.0\nentropy = 0.971\nsamples = 5\nvalue = [3, 2]"] ;
3 -> 13 ;
14 [label="entropy = 0.0\nsamples = 2\nvalue = [2, 0]"] ;
13 -> 14 ;
15 [label="Fare <= 115.2\nentropy = 0.918\nsamples = 3\nvalue = [1, 2]"] ;
13 -> 15 ;
16 [label="entropy = 0.0\nsamples = 2\nvalue = [0, 2]"] ;
15 -> 16 ;
17 [label="entropy = 0.0\nsamples = 1\nvalue = [1, 0]"] ;
15 -> 17 ;
18 [label="Fare <= 30.606\nentropy = 0.172\nsamples = 78\nvalue = [2, 76]"] ;
2 -> 18 ;
19 [label="Fare <= 28.231\nentropy = 0.337\nsamples = 32\nvalue = [2, 30]"] ;
18 -> 19 ;
20 [label="Age <= 37.0\nentropy = 0.206\nsamples = 31\nvalue = [1, 30]"] ;
19 -> 20 ;
21 [label="entropy = 0.0\nsamples = 19\nvalue = [0, 19]"] ;
20 -> 21 ;
22 [label="Age <= 39.0\nentropy = 0.414\nsamples = 12\nvalue = [1, 11]"] ;
20 -> 22 ;
23 [label="entropy = 0.0\nsamples = 1\nvalue = [1, 0]"] ;
22 -> 23 ;
24 [label="entropy = 0.0\nsamples = 11\nvalue = [0, 11]"] ;
22 -> 24 ;
25 [label="entropy = 0.0\nsamples = 1\nvalue = [1, 0]"] ;
19 -> 25 ;
26 [label="entropy = 0.0\nsamples = 46\nvalue = [0, 46]"] ;
18 -> 26 ;
27 [label="Fare <= 24.808\nentropy = 0.998\nsamples = 107\nvalue = [51, 56]"] ;
1 -> 27 ;
28 [label="Age <= 36.5\nentropy = 0.981\nsamples = 93\nvalue = [39, 54]"] ;
27 -> 28 ;
29 [label="Fare <= 8.04\nentropy = 0.961\nsamples = 86\nvalue = [33, 53]"] ;
28 -> 29 ;
30 [label="Age <= 14.5\nentropy = 0.811\nsamples = 36\nvalue = [9, 27]"] ;
29 -> 30 ;
31 [label="entropy = 0.0\nsamples = 1\nvalue = [1, 0]"] ;
30 -> 31 ;
32 [label="Age <= 20.0\nentropy = 0.776\nsamples = 35\nvalue = [8, 27]"] ;
30 -> 32 ;
33 [label="entropy = 0.0\nsamples = 6\nvalue = [0, 6]"] ;
32 -> 33 ;
34 [label="Age <= 30.35\nentropy = 0.85\nsamples = 29\nvalue = [8, 21]"] ;
32 -> 34 ;
35 [label="Parch <= 1.0\nentropy = 0.811\nsamples = 28\nvalue = [7, 21]"] ;
34 -> 35 ;
36 [label="Fare <= 7.4\nentropy = 0.764\nsamples = 27\nvalue = [6, 21]"] ;
35 -> 36 ;
37 [label="entropy = 0.0\nsamples = 3\nvalue = [0, 3]"] ;
36 -> 37 ;
38 [label="Fare <= 7.64\nentropy = 0.811\nsamples = 24\nvalue = [6, 18]"] ;
36 -> 38 ;
39 [label="entropy = 0.0\nsamples = 2\nvalue = [2, 0]"] ;
38 -> 39 ;
40 [label="Age <= 28.85\nentropy = 0.684\nsamples = 22\nvalue = [4, 18]"] ;
38 -> 40 ;
41 [label="Age <= 27.5\nentropy = 0.881\nsamples = 10\nvalue = [3, 7]"] ;
40 -> 41 ;
42 [label="Age <= 25.5\nentropy = 0.764\nsamples = 9\nvalue = [2, 7]"] ;
41 -> 42 ;
43 [label="Age <= 23.5\nentropy = 0.918\nsamples = 6\nvalue = [2, 4]"] ;
42 -> 43 ;
44 [label="Age <= 21.5\nentropy = 0.722\nsamples = 5\nvalue = [1, 4]"] ;
43 -> 44 ;
45 [label="Fare <= 7.7\nentropy = 1.0\nsamples = 2\nvalue = [1, 1]"] ;
44 -> 45 ;
46 [label="entropy = 0.0\nsamples = 1\nvalue = [0, 1]"] ;
45 -> 46 ;
47 [label="entropy = 0.0\nsamples = 1\nvalue = [1, 0]"] ;
45 -> 47 ;
48 [label="entropy = 0.0\nsamples = 3\nvalue = [0, 3]"] ;
44 -> 48 ;
49 [label="entropy = 0.0\nsamples = 1\nvalue = [1, 0]"] ;
43 -> 49 ;
50 [label="entropy = 0.0\nsamples = 3\nvalue = [0, 3]"] ;
42 -> 50 ;
51 [label="entropy = 0.0\nsamples = 1\nvalue = [1, 0]"] ;
41 -> 51 ;
52 [label="Fare <= 7.769\nentropy = 0.414\nsamples = 12\nvalue = [1, 11]"] ;
40 -> 52 ;
53 [label="entropy = 0.544\nsamples = 8\nvalue = [1, 7]"] ;
52 -> 53 ;
54 [label="entropy = 0.0\nsamples = 4\nvalue = [0, 4]"] ;
52 -> 54 ;
55 [label="entropy = 0.0\nsamples = 1\nvalue = [1, 0]"] ;
35 -> 55 ;
56 [label="entropy = 0.0\nsamples = 1\nvalue = [1, 0]"] ;
34 -> 56 ;
57 [label="Fare <= 10.798\nentropy = 0.999\nsamples = 50\nvalue = [24, 26]"] ;
29 -> 57 ;
58 [label="entropy = 0.0\nsamples = 10\nvalue = [10, 0]"] ;
57 -> 58 ;
59 [label="Fare <= 13.438\nentropy = 0.934\nsamples = 40\nvalue = [14, 26]"] ;
57 -> 59 ;
60 [label="entropy = 0.0\nsamples = 5\nvalue = [0, 5]"] ;
59 -> 60 ;
61 [label="Fare <= 14.852\nentropy = 0.971\nsamples = 35\nvalue = [14, 21]"] ;
59 -> 61 ;
62 [label="entropy = 0.0\nsamples = 5\nvalue = [5, 0]"] ;
61 -> 62 ;
63 [label="Age <= 29.35\nentropy = 0.881\nsamples = 30\nvalue = [9, 21]"] ;
61 -> 63 ;
64 [label="Fare <= 15.975\nentropy = 0.997\nsamples = 15\nvalue = [7, 8]"] ;
63 -> 64 ;
65 [label="entropy = 0.0\nsamples = 3\nvalue = [0, 3]"] ;
64 -> 65 ;
66 [label="Age <= 6.5\nentropy = 0.98\nsamples = 12\nvalue = [7, 5]"] ;
64 -> 66 ;
67 [label="SibSp <= 2.5\nentropy = 0.722\nsamples = 5\nvalue = [1, 4]"] ;
66 -> 67 ;
68 [label="entropy = 0.0\nsamples = 4\nvalue = [0, 4]"] ;
67 -> 68 ;
69 [label="entropy = 0.0\nsamples = 1\nvalue = [1, 0]"] ;
67 -> 69 ;
70 [label="Fare <= 17.25\nentropy = 0.592\nsamples = 7\nvalue = [6, 1]"] ;
66 -> 70 ;
71 [label="Fare <= 16.4\nentropy = 1.0\nsamples = 2\nvalue = [1, 1]"] ;
70 -> 71 ;
72 [label="entropy = 0.0\nsamples = 1\nvalue = [1, 0]"] ;
71 -> 72 ;
73 [label="entropy = 0.0\nsamples = 1\nvalue = [0, 1]"] ;
71 -> 73 ;
74 [label="entropy = 0.0\nsamples = 5\nvalue = [5, 0]"] ;
70 -> 74 ;
75 [label="Fare <= 15.373\nentropy = 0.567\nsamples = 15\nvalue = [2, 13]"] ;
63 -> 75 ;
76 [label="entropy = 0.0\nsamples = 1\nvalue = [1, 0]"] ;
75 -> 76 ;
77 [label="Age <= 30.35\nentropy = 0.371\nsamples = 14\nvalue = [1, 13]"] ;
75 -> 77 ;
78 [label="entropy = 0.0\nsamples = 9\nvalue = [0, 9]"] ;
77 -> 78 ;
79 [label="Age <= 32.0\nentropy = 0.722\nsamples = 5\nvalue = [1, 4]"] ;
77 -> 79 ;
80 [label="Parch <= 0.5\nentropy = 1.0\nsamples = 2\nvalue = [1, 1]"] ;
79 -> 80 ;
81 [label="entropy = 0.0\nsamples = 1\nvalue = [1, 0]"] ;
80 -> 81 ;
82 [label="entropy = 0.0\nsamples = 1\nvalue = [0, 1]"] ;
80 -> 82 ;
83 [label="entropy = 0.0\nsamples = 3\nvalue = [0, 3]"] ;
79 -> 83 ;
84 [label="Age <= 55.0\nentropy = 0.592\nsamples = 7\nvalue = [6, 1]"] ;
28 -> 84 ;
85 [label="entropy = 0.0\nsamples = 6\nvalue = [6, 0]"] ;
84 -> 85 ;
86 [label="entropy = 0.0\nsamples = 1\nvalue = [0, 1]"] ;
84 -> 86 ;
87 [label="Fare <= 31.331\nentropy = 0.592\nsamples = 14\nvalue = [12, 2]"] ;
27 -> 87 ;
88 [label="entropy = 0.0\nsamples = 8\nvalue = [8, 0]"] ;
87 -> 88 ;
89 [label="Fare <= 32.881\nentropy = 0.918\nsamples = 6\nvalue = [4, 2]"] ;
87 -> 89 ;
90 [label="entropy = 0.0\nsamples = 2\nvalue = [0, 2]"] ;
89 -> 90 ;
91 [label="entropy = 0.0\nsamples = 4\nvalue = [4, 0]"] ;
89 -> 91 ;
92 [label="Age <= 13.5\nentropy = 0.694\nsamples = 392\nvalue = [319, 73]"] ;
0 -> 92 [labeldistance=2.5, labelangle=-45, headlabel="False"] ;
93 [label="SibSp <= 2.5\nentropy = 0.995\nsamples = 24\nvalue = [11, 13]"] ;
92 -> 93 ;
94 [label="entropy = 0.0\nsamples = 12\nvalue = [0, 12]"] ;
93 -> 94 ;
95 [label="Age <= 3.5\nentropy = 0.414\nsamples = 12\nvalue = [11, 1]"] ;
93 -> 95 ;
96 [label="Age <= 2.5\nentropy = 0.722\nsamples = 5\nvalue = [4, 1]"] ;
95 -> 96 ;
97 [label="entropy = 0.0\nsamples = 4\nvalue = [4, 0]"] ;
96 -> 97 ;
98 [label="entropy = 0.0\nsamples = 1\nvalue = [0, 1]"] ;
96 -> 98 ;
99 [label="entropy = 0.0\nsamples = 7\nvalue = [7, 0]"] ;
95 -> 99 ;
100 [label="Pclass <= 1.5\nentropy = 0.642\nsamples = 368\nvalue = [308, 60]"] ;
92 -> 100 ;
101 [label="Age <= 60.5\nentropy = 0.887\nsamples = 82\nvalue = [57, 25]"] ;
100 -> 101 ;
102 [label="Fare <= 127.817\nentropy = 0.927\nsamples = 73\nvalue = [48, 25]"] ;
101 -> 102 ;
103 [label="Fare <= 109.892\nentropy = 0.957\nsamples = 66\nvalue = [41, 25]"] ;
102 -> 103 ;
104 [label="Fare <= 27.135\nentropy = 0.942\nsamples = 64\nvalue = [41, 23]"] ;
103 -> 104 ;
105 [label="Fare <= 26.144\nentropy = 0.961\nsamples = 13\nvalue = [5, 8]"] ;
104 -> 105 ;
106 [label="entropy = 0.0\nsamples = 3\nvalue = [3, 0]"] ;
105 -> 106 ;
107 [label="Age <= 40.5\nentropy = 0.722\nsamples = 10\nvalue = [2, 8]"] ;
105 -> 107 ;
108 [label="entropy = 0.0\nsamples = 6\nvalue = [0, 6]"] ;
107 -> 108 ;
109 [label="Age <= 52.0\nentropy = 1.0\nsamples = 4\nvalue = [2, 2]"] ;
107 -> 109 ;
110 [label="Age <= 46.5\nentropy = 0.918\nsamples = 3\nvalue = [1, 2]"] ;
109 -> 110 ;
111 [label="entropy = 1.0\nsamples = 2\nvalue = [1, 1]"] ;
110 -> 111 ;
112 [label="entropy = 0.0\nsamples = 1\nvalue = [0, 1]"] ;
110 -> 112 ;
113 [label="entropy = 0.0\nsamples = 1\nvalue = [1, 0]"] ;
109 -> 113 ;
114 [label="Fare <= 30.1\nentropy = 0.874\nsamples = 51\nvalue = [36, 15]"] ;
104 -> 114 ;
115 [label="entropy = 0.0\nsamples = 7\nvalue = [7, 0]"] ;
114 -> 115 ;
116 [label="Fare <= 30.598\nentropy = 0.926\nsamples = 44\nvalue = [29, 15]"] ;
114 -> 116 ;
117 [label="Age <= 53.5\nentropy = 0.811\nsamples = 4\nvalue = [1, 3]"] ;
116 -> 117 ;
118 [label="entropy = 0.0\nsamples = 3\nvalue = [0, 3]"] ;
117 -> 118 ;
119 [label="entropy = 0.0\nsamples = 1\nvalue = [1, 0]"] ;
117 -> 119 ;
120 [label="SibSp <= 0.5\nentropy = 0.881\nsamples = 40\nvalue = [28, 12]"] ;
116 -> 120 ;
121 [label="Age <= 42.5\nentropy = 0.702\nsamples = 21\nvalue = [17, 4]"] ;
120 -> 121 ;
122 [label="Fare <= 37.812\nentropy = 0.89\nsamples = 13\nvalue = [9, 4]"] ;
121 -> 122 ;
123 [label="Fare <= 35.25\nentropy = 0.971\nsamples = 5\nvalue = [2, 3]"] ;
122 -> 123 ;
124 [label="Age <= 34.85\nentropy = 0.918\nsamples = 3\nvalue = [2, 1]"] ;
123 -> 124 ;
125 [label="entropy = 0.0\nsamples = 2\nvalue = [2, 0]"] ;
124 -> 125 ;
126 [label="entropy = 0.0\nsamples = 1\nvalue = [0, 1]"] ;
124 -> 126 ;
127 [label="entropy = 0.0\nsamples = 2\nvalue = [0, 2]"] ;
123 -> 127 ;
128 [label="Parch <= 0.5\nentropy = 0.544\nsamples = 8\nvalue = [7, 1]"] ;
122 -> 128 ;
129 [label="entropy = 0.0\nsamples = 6\nvalue = [6, 0]"] ;
128 -> 129 ;
130 [label="Fare <= 70.323\nentropy = 1.0\nsamples = 2\nvalue = [1, 1]"] ;
128 -> 130 ;
131 [label="entropy = 0.0\nsamples = 1\nvalue = [0, 1]"] ;
130 -> 131 ;
132 [label="entropy = 0.0\nsamples = 1\nvalue = [1, 0]"] ;
130 -> 132 ;
133 [label="entropy = 0.0\nsamples = 8\nvalue = [8, 0]"] ;
121 -> 133 ;
134 [label="Fare <= 98.752\nentropy = 0.982\nsamples = 19\nvalue = [11, 8]"] ;
120 -> 134 ;
135 [label="Age <= 26.5\nentropy = 0.998\nsamples = 17\nvalue = [9, 8]"] ;
134 -> 135 ;
136 [label="entropy = 0.0\nsamples = 2\nvalue = [0, 2]"] ;
135 -> 136 ;
137 [label="Age <= 33.0\nentropy = 0.971\nsamples = 15\nvalue = [9, 6]"] ;
135 -> 137 ;
138 [label="entropy = 0.0\nsamples = 2\nvalue = [2, 0]"] ;
137 -> 138 ;
139 [label="Age <= 56.0\nentropy = 0.996\nsamples = 13\nvalue = [7, 6]"] ;
137 -> 139 ;
140 [label="Age <= 49.5\nentropy = 0.98\nsamples = 12\nvalue = [7, 5]"] ;
139 -> 140 ;
141 [label="Age <= 47.5\nentropy = 1.0\nsamples = 10\nvalue = [5, 5]"] ;
140 -> 141 ;
142 [label="Age <= 43.0\nentropy = 0.954\nsamples = 8\nvalue = [5, 3]"] ;
141 -> 142 ;
143 [label="Fare <= 52.277\nentropy = 0.971\nsamples = 5\nvalue = [2, 3]"] ;
142 -> 143 ;
144 [label="entropy = 0.0\nsamples = 1\nvalue = [1, 0]"] ;
143 -> 144 ;
145 [label="Fare <= 52.827\nentropy = 0.811\nsamples = 4\nvalue = [1, 3]"] ;
143 -> 145 ;
146 [label="entropy = 0.0\nsamples = 2\nvalue = [0, 2]"] ;
145 -> 146 ;
147 [label="Fare <= 71.55\nentropy = 1.0\nsamples = 2\nvalue = [1, 1]"] ;
145 -> 147 ;
148 [label="entropy = 0.0\nsamples = 1\nvalue = [1, 0]"] ;
147 -> 148 ;
149 [label="entropy = 0.0\nsamples = 1\nvalue = [0, 1]"] ;
147 -> 149 ;
150 [label="entropy = 0.0\nsamples = 3\nvalue = [3, 0]"] ;
142 -> 150 ;
151 [label="entropy = 0.0\nsamples = 2\nvalue = [0, 2]"] ;
141 -> 151 ;
152 [label="entropy = 0.0\nsamples = 2\nvalue = [2, 0]"] ;
140 -> 152 ;
153 [label="entropy = 0.0\nsamples = 1\nvalue = [0, 1]"] ;
139 -> 153 ;
154 [label="entropy = 0.0\nsamples = 2\nvalue = [2, 0]"] ;
134 -> 154 ;
155 [label="entropy = 0.0\nsamples = 2\nvalue = [0, 2]"] ;
103 -> 155 ;
156 [label="entropy = 0.0\nsamples = 7\nvalue = [7, 0]"] ;
102 -> 156 ;
157 [label="entropy = 0.0\nsamples = 9\nvalue = [9, 0]"] ;
101 -> 157 ;
158 [label="Fare <= 7.763\nentropy = 0.536\nsamples = 286\nvalue = [251, 35]"] ;
100 -> 158 ;
159 [label="Age <= 29.35\nentropy = 0.364\nsamples = 72\nvalue = [67, 5]"] ;
158 -> 159 ;
160 [label="Age <= 21.5\nentropy = 0.605\nsamples = 27\nvalue = [23, 4]"] ;
159 -> 160 ;
161 [label="entropy = 0.0\nsamples = 11\nvalue = [11, 0]"] ;
160 -> 161 ;
162 [label="Fare <= 7.227\nentropy = 0.811\nsamples = 16\nvalue = [12, 4]"] ;
160 -> 162 ;
163 [label="Fare <= 7.133\nentropy = 1.0\nsamples = 6\nvalue = [3, 3]"] ;
162 -> 163 ;
164 [label="Fare <= 3.523\nentropy = 0.811\nsamples = 4\nvalue = [3, 1]"] ;
163 -> 164 ;
165 [label="entropy = 0.0\nsamples = 1\nvalue = [0, 1]"] ;
164 -> 165 ;
166 [label="entropy = 0.0\nsamples = 3\nvalue = [3, 0]"] ;
164 -> 166 ;
167 [label="entropy = 0.0\nsamples = 2\nvalue = [0, 2]"] ;
163 -> 167 ;
168 [label="Age <= 28.75\nentropy = 0.469\nsamples = 10\nvalue = [9, 1]"] ;
162 -> 168 ;
169 [label="entropy = 0.0\nsamples = 9\nvalue = [9, 0]"] ;
168 -> 169 ;
170 [label="entropy = 0.0\nsamples = 1\nvalue = [0, 1]"] ;
168 -> 170 ;
171 [label="Fare <= 7.24\nentropy = 0.154\nsamples = 45\nvalue = [44, 1]"] ;
159 -> 171 ;
172 [label="Fare <= 7.227\nentropy = 0.25\nsamples = 24\nvalue = [23, 1]"] ;
171 -> 172 ;
173 [label="entropy = 0.0\nsamples = 20\nvalue = [20, 0]"] ;
172 -> 173 ;
174 [label="entropy = 0.811\nsamples = 4\nvalue = [3, 1]"] ;
172 -> 174 ;
175 [label="entropy = 0.0\nsamples = 21\nvalue = [21, 0]"] ;
171 -> 175 ;
176 [label="Fare <= 7.798\nentropy = 0.585\nsamples = 214\nvalue = [184, 30]"] ;
158 -> 176 ;
177 [label="Age <= 29.35\nentropy = 0.946\nsamples = 11\nvalue = [7, 4]"] ;
176 -> 177 ;
178 [label="Fare <= 7.785\nentropy = 0.881\nsamples = 10\nvalue = [7, 3]"] ;
177 -> 178 ;
179 [label="SibSp <= 0.5\nentropy = 0.65\nsamples = 6\nvalue = [5, 1]"] ;
178 -> 179 ;
180 [label="entropy = 0.0\nsamples = 4\nvalue = [4, 0]"] ;
179 -> 180 ;
181 [label="entropy = 1.0\nsamples = 2\nvalue = [1, 1]"] ;
179 -> 181 ;
182 [label="Age <= 21.5\nentropy = 1.0\nsamples = 4\nvalue = [2, 2]"] ;
178 -> 182 ;
183 [label="entropy = 0.0\nsamples = 1\nvalue = [0, 1]"] ;
182 -> 183 ;
184 [label="Age <= 25.5\nentropy = 0.918\nsamples = 3\nvalue = [2, 1]"] ;
182 -> 184 ;
185 [label="entropy = 0.0\nsamples = 2\nvalue = [2, 0]"] ;
184 -> 185 ;
186 [label="entropy = 0.0\nsamples = 1\nvalue = [0, 1]"] ;
184 -> 186 ;
187 [label="entropy = 0.0\nsamples = 1\nvalue = [0, 1]"] ;
177 -> 187 ;
188 [label="Parch <= 1.5\nentropy = 0.552\nsamples = 203\nvalue = [177, 26]"] ;
176 -> 188 ;
189 [label="Fare <= 7.91\nentropy = 0.57\nsamples = 193\nvalue = [167, 26]"] ;
188 -> 189 ;
190 [label="Age <= 28.5\nentropy = 0.345\nsamples = 31\nvalue = [29, 2]"] ;
189 -> 190 ;
191 [label="entropy = 0.0\nsamples = 11\nvalue = [11, 0]"] ;
190 -> 191 ;
192 [label="Age <= 29.35\nentropy = 0.469\nsamples = 20\nvalue = [18, 2]"] ;
190 -> 192 ;
193 [label="Fare <= 7.885\nentropy = 1.0\nsamples = 2\nvalue = [1, 1]"] ;
192 -> 193 ;
194 [label="entropy = 0.0\nsamples = 1\nvalue = [1, 0]"] ;
193 -> 194 ;
195 [label="entropy = 0.0\nsamples = 1\nvalue = [0, 1]"] ;
193 -> 195 ;
196 [label="Fare <= 7.875\nentropy = 0.31\nsamples = 18\nvalue = [17, 1]"] ;
192 -> 196 ;
197 [label="Fare <= 7.842\nentropy = 1.0\nsamples = 2\nvalue = [1, 1]"] ;
196 -> 197 ;
198 [label="entropy = 0.0\nsamples = 1\nvalue = [1, 0]"] ;
197 -> 198 ;
199 [label="entropy = 0.0\nsamples = 1\nvalue = [0, 1]"] ;
197 -> 199 ;
200 [label="entropy = 0.0\nsamples = 16\nvalue = [16, 0]"] ;
196 -> 200 ;
201 [label="Fare <= 7.988\nentropy = 0.605\nsamples = 162\nvalue = [138, 24]"] ;
189 -> 201 ;
202 [label="Age <= 30.0\nentropy = 0.918\nsamples = 9\nvalue = [6, 3]"] ;
201 -> 202 ;
203 [label="entropy = 0.0\nsamples = 3\nvalue = [3, 0]"] ;
202 -> 203 ;
204 [label="SibSp <= 1.0\nentropy = 1.0\nsamples = 6\nvalue = [3, 3]"] ;
202 -> 204 ;
205 [label="Age <= 41.5\nentropy = 0.971\nsamples = 5\nvalue = [2, 3]"] ;
204 -> 205 ;
206 [label="Age <= 35.5\nentropy = 1.0\nsamples = 4\nvalue = [2, 2]"] ;
205 -> 206 ;
207 [label="entropy = 1.0\nsamples = 2\nvalue = [1, 1]"] ;
206 -> 207 ;
208 [label="entropy = 1.0\nsamples = 2\nvalue = [1, 1]"] ;
206 -> 208 ;
209 [label="entropy = 0.0\nsamples = 1\nvalue = [0, 1]"] ;
205 -> 209 ;
210 [label="entropy = 0.0\nsamples = 1\nvalue = [1, 0]"] ;
204 -> 210 ;
211 [label="Fare <= 48.092\nentropy = 0.577\nsamples = 153\nvalue = [132, 21]"] ;
201 -> 211 ;
212 [label="Fare <= 26.125\nentropy = 0.555\nsamples = 147\nvalue = [128, 19]"] ;
211 -> 212 ;
213 [label="Age <= 20.5\nentropy = 0.57\nsamples = 141\nvalue = [122, 19]"] ;
212 -> 213 ;
214 [label="Fare <= 8.104\nentropy = 0.792\nsamples = 21\nvalue = [16, 5]"] ;
213 -> 214 ;
215 [label="Age <= 19.5\nentropy = 1.0\nsamples = 6\nvalue = [3, 3]"] ;
214 -> 215 ;
216 [label="Age <= 17.0\nentropy = 0.971\nsamples = 5\nvalue = [2, 3]"] ;
215 -> 216 ;
217 [label="entropy = 1.0\nsamples = 2\nvalue = [1, 1]"] ;
216 -> 217 ;
218 [label="Age <= 18.5\nentropy = 0.918\nsamples = 3\nvalue = [1, 2]"] ;
216 -> 218 ;
219 [label="entropy = 0.0\nsamples = 1\nvalue = [0, 1]"] ;
218 -> 219 ;
220 [label="entropy = 1.0\nsamples = 2\nvalue = [1, 1]"] ;
218 -> 220 ;
221 [label="entropy = 0.0\nsamples = 1\nvalue = [1, 0]"] ;
215 -> 221 ;
222 [label="Age <= 18.5\nentropy = 0.567\nsamples = 15\nvalue = [13, 2]"] ;
214 -> 222 ;
223 [label="entropy = 0.0\nsamples = 8\nvalue = [8, 0]"] ;
222 -> 223 ;
224 [label="Fare <= 15.121\nentropy = 0.863\nsamples = 7\nvalue = [5, 2]"] ;
222 -> 224 ;
225 [label="Pclass <= 2.5\nentropy = 0.65\nsamples = 6\nvalue = [5, 1]"] ;
224 -> 225 ;
226 [label="Fare <= 11.75\nentropy = 0.918\nsamples = 3\nvalue = [2, 1]"] ;
225 -> 226 ;
227 [label="entropy = 1.0\nsamples = 2\nvalue = [1, 1]"] ;
226 -> 227 ;
228 [label="entropy = 0.0\nsamples = 1\nvalue = [1, 0]"] ;
226 -> 228 ;
229 [label="entropy = 0.0\nsamples = 3\nvalue = [3, 0]"] ;
225 -> 229 ;
230 [label="entropy = 0.0\nsamples = 1\nvalue = [0, 1]"] ;
224 -> 230 ;
231 [label="Age <= 25.5\nentropy = 0.52\nsamples = 120\nvalue = [106, 14]"] ;
213 -> 231 ;
232 [label="entropy = 0.0\nsamples = 16\nvalue = [16, 0]"] ;
231 -> 232 ;
233 [label="Age <= 60.5\nentropy = 0.57\nsamples = 104\nvalue = [90, 14]"] ;
231 -> 233 ;
234 [label="Age <= 45.5\nentropy = 0.55\nsamples = 102\nvalue = [89, 13]"] ;
233 -> 234 ;
235 [label="Age <= 44.5\nentropy = 0.592\nsamples = 91\nvalue = [78, 13]"] ;
234 -> 235 ;
236 [label="Fare <= 9.106\nentropy = 0.567\nsamples = 90\nvalue = [78, 12]"] ;
235 -> 236 ;
237 [label="Fare <= 8.258\nentropy = 0.353\nsamples = 30\nvalue = [28, 2]"] ;
236 -> 237 ;
238 [label="Fare <= 8.081\nentropy = 0.454\nsamples = 21\nvalue = [19, 2]"] ;
237 -> 238 ;
239 [label="Age <= 31.0\nentropy = 0.286\nsamples = 20\nvalue = [19, 1]"] ;
238 -> 239 ;
240 [label="entropy = 0.0\nsamples = 15\nvalue = [15, 0]"] ;
239 -> 240 ;
241 [label="Age <= 33.0\nentropy = 0.722\nsamples = 5\nvalue = [4, 1]"] ;
239 -> 241 ;
242 [label="entropy = 0.0\nsamples = 1\nvalue = [0, 1]"] ;
241 -> 242 ;
243 [label="entropy = 0.0\nsamples = 4\nvalue = [4, 0]"] ;
241 -> 243 ;
244 [label="entropy = 0.0\nsamples = 1\nvalue = [0, 1]"] ;
238 -> 244 ;
245 [label="entropy = 0.0\nsamples = 9\nvalue = [9, 0]"] ;
237 -> 245 ;
246 [label="Fare <= 10.0\nentropy = 0.65\nsamples = 60\nvalue = [50, 10]"] ;
236 -> 246 ;
247 [label="Age <= 28.5\nentropy = 1.0\nsamples = 4\nvalue = [2, 2]"] ;
246 -> 247 ;
248 [label="entropy = 0.0\nsamples = 2\nvalue = [2, 0]"] ;
247 -> 248 ;
249 [label="entropy = 0.0\nsamples = 2\nvalue = [0, 2]"] ;
247 -> 249 ;
250 [label="Fare <= 12.938\nentropy = 0.592\nsamples = 56\nvalue = [48, 8]"] ;
246 -> 250 ;
251 [label="entropy = 0.0\nsamples = 8\nvalue = [8, 0]"] ;
250 -> 251 ;
252 [label="Fare <= 14.131\nentropy = 0.65\nsamples = 48\nvalue = [40, 8]"] ;
250 -> 252 ;
253 [label="Age <= 28.85\nentropy = 0.918\nsamples = 12\nvalue = [8, 4]"] ;
252 -> 253 ;
254 [label="entropy = 0.0\nsamples = 3\nvalue = [3, 0]"] ;
253 -> 254 ;
255 [label="Age <= 29.85\nentropy = 0.991\nsamples = 9\nvalue = [5, 4]"] ;
253 -> 255 ;
256 [label="entropy = 0.0\nsamples = 2\nvalue = [0, 2]"] ;
255 -> 256 ;
257 [label="Age <= 32.0\nentropy = 0.863\nsamples = 7\nvalue = [5, 2]"] ;
255 -> 257 ;
258 [label="entropy = 0.0\nsamples = 3\nvalue = [3, 0]"] ;
257 -> 258 ;
259 [label="Age <= 35.0\nentropy = 1.0\nsamples = 4\nvalue = [2, 2]"] ;
257 -> 259 ;
260 [label="entropy = 0.0\nsamples = 1\nvalue = [0, 1]"] ;
259 -> 260 ;
261 [label="Age <= 39.0\nentropy = 0.918\nsamples = 3\nvalue = [2, 1]"] ;
259 -> 261 ;
262 [label="entropy = 0.0\nsamples = 1\nvalue = [1, 0]"] ;
261 -> 262 ;
263 [label="entropy = 1.0\nsamples = 2\nvalue = [1, 1]"] ;
261 -> 263 ;
264 [label="Age <= 32.5\nentropy = 0.503\nsamples = 36\nvalue = [32, 4]"] ;
252 -> 264 ;
265 [label="Fare <= 15.173\nentropy = 0.65\nsamples = 24\nvalue = [20, 4]"] ;
264 -> 265 ;
266 [label="entropy = 0.0\nsamples = 6\nvalue = [6, 0]"] ;
265 -> 266 ;
267 [label="Age <= 26.5\nentropy = 0.764\nsamples = 18\nvalue = [14, 4]"] ;
265 -> 267 ;
268 [label="entropy = 0.0\nsamples = 1\nvalue = [0, 1]"] ;
267 -> 268 ;
269 [label="Fare <= 15.373\nentropy = 0.672\nsamples = 17\nvalue = [14, 3]"] ;
267 -> 269 ;
270 [label="entropy = 0.0\nsamples = 1\nvalue = [0, 1]"] ;
269 -> 270 ;
271 [label="Fare <= 22.887\nentropy = 0.544\nsamples = 16\nvalue = [14, 2]"] ;
269 -> 271 ;
272 [label="entropy = 0.0\nsamples = 10\nvalue = [10, 0]"] ;
271 -> 272 ;
273 [label="Age <= 31.0\nentropy = 0.918\nsamples = 6\nvalue = [4, 2]"] ;
271 -> 273 ;
274 [label="Fare <= 23.625\nentropy = 0.722\nsamples = 5\nvalue = [4, 1]"] ;
273 -> 274 ;
275 [label="entropy = 0.0\nsamples = 1\nvalue = [0, 1]"] ;
274 -> 275 ;
276 [label="entropy = 0.0\nsamples = 4\nvalue = [4, 0]"] ;
274 -> 276 ;
277 [label="entropy = 0.0\nsamples = 1\nvalue = [0, 1]"] ;
273 -> 277 ;
278 [label="entropy = 0.0\nsamples = 12\nvalue = [12, 0]"] ;
264 -> 278 ;
279 [label="entropy = 0.0\nsamples = 1\nvalue = [0, 1]"] ;
235 -> 279 ;
280 [label="entropy = 0.0\nsamples = 11\nvalue = [11, 0]"] ;
234 -> 280 ;
281 [label="Age <= 64.0\nentropy = 1.0\nsamples = 2\nvalue = [1, 1]"] ;
233 -> 281 ;
282 [label="entropy = 0.0\nsamples = 1\nvalue = [0, 1]"] ;
281 -> 282 ;
283 [label="entropy = 0.0\nsamples = 1\nvalue = [1, 0]"] ;
281 -> 283 ;
284 [label="entropy = 0.0\nsamples = 6\nvalue = [6, 0]"] ;
212 -> 284 ;
285 [label="Pclass <= 2.5\nentropy = 0.918\nsamples = 6\nvalue = [4, 2]"] ;
211 -> 285 ;
286 [label="entropy = 0.0\nsamples = 3\nvalue = [3, 0]"] ;
285 -> 286 ;
287 [label="Age <= 27.0\nentropy = 0.918\nsamples = 3\nvalue = [1, 2]"] ;
285 -> 287 ;
288 [label="entropy = 0.0\nsamples = 1\nvalue = [0, 1]"] ;
287 -> 288 ;
289 [label="Age <= 30.0\nentropy = 1.0\nsamples = 2\nvalue = [1, 1]"] ;
287 -> 289 ;
290 [label="entropy = 0.0\nsamples = 1\nvalue = [1, 0]"] ;
289 -> 290 ;
291 [label="entropy = 0.0\nsamples = 1\nvalue = [0, 1]"] ;
289 -> 291 ;
292 [label="entropy = 0.0\nsamples = 10\nvalue = [10, 0]"] ;
188 -> 292 ;
}